<?xml version="1.0"?>
<opencv_storage>
<cascade>
  <stageType>BOOST</stageType>
  <featureType>HAAR</featureType>
  <height>18</height>
  <width>18</width>
  <stageParams>
    <boostType>GAB</boostType>
    <minHitRate>9.9500000476837158e-01</minHitRate>
    <maxFalseAlarm>5.0000000000000000e-01</maxFalseAlarm>
    <weightTrimRate>9.4999999999999996e-01</weightTrimRate>
    <maxDepth>1</maxDepth>
    <maxWeakCount>100</maxWeakCount></stageParams>
  <featureParams>
    <maxCatCount>0</maxCatCount>
    <featSize>1</featSize>
    <mode>BASIC</mode></featureParams>
  <stageNum>8</stageNum>
  <stages>
    <!-- stage 0 -->
    <_>
      <maxWeakCount>1</maxWeakCount>
      <stageThreshold>7.4031645059585571e-01</stageThreshold>
      <weakClassifiers>
        <_>
          <internalNodes>
            0 -1 2 -4.3652113527059555e-03</internalNodes>
          <leafValues>
            7.4031645059585571e-01 -9.8236334323883057e-01</leafValues></_></weakClassifiers></_>
    <!-- stage 1 -->
    <_>
      <maxWeakCount>3</maxWeakCount>
      <stageThreshold>-1.2325844168663025e-01</stageThreshold>
      <weakClassifiers>
        <_>
          <internalNodes>
            0 -1 4 -9.5407469198107719e-03</internalNodes>
          <leafValues>
            -9.6242171525955200e-01 6.5642893314361572e-01</leafValues></_>
        <_>
          <internalNodes>
            0 -1 20 5.4226984502747655e-05</internalNodes>
          <leafValues>
            -9.1910046339035034e-01 4.0853357315063477e-01</leafValues></_>
        <_>
          <internalNodes>
            0 -1 24 5.4939114488661289e-04</internalNodes>
          <leafValues>
            -6.9946151971817017e-01 4.3062967061996460e-01</leafValues></_></weakClassifiers></_>
    <!-- stage 2 -->
    <_>
      <maxWeakCount>4</maxWeakCount>
      <stageThreshold>8.2975951954722404e-03</stageThreshold>
      <weakClassifiers>
        <_>
          <internalNodes>
            0 -1 8 -1.1593777162488550e-04</internalNodes>
          <leafValues>
            -9.4358974695205688e-01 5.8109450340270996e-01</leafValues></_>
        <_>
          <internalNodes>
            0 -1 12 -6.4760306850075722e-04</internalNodes>
          <leafValues>
            -9.3791079521179199e-01 4.1010966897010803e-01</leafValues></_>
        <_>
          <internalNodes>
            0 -1 3 5.6848637759685516e-03</internalNodes>
          <leafValues>
            2.7964770793914795e-01 -9.4263470172882080e-01</leafValues></_>
        <_>
          <internalNodes>
            0 -1 6 -1.3632534537464380e-03</internalNodes>
          <leafValues>
            -9.7415047883987427e-01 2.6212996244430542e-01</leafValues></_></weakClassifiers></_>
    <!-- stage 3 -->
    <_>
      <maxWeakCount>3</maxWeakCount>
      <stageThreshold>4.3591182678937912e-02</stageThreshold>
      <weakClassifiers>
        <_>
          <internalNodes>
            0 -1 14 -5.7096825912594795e-03</internalNodes>
          <leafValues>
            -9.5419847965240479e-01 5.8545094728469849e-01</leafValues></_>
        <_>
          <internalNodes>
            0 -1 17 -2.6558964236755855e-05</internalNodes>
          <leafValues>
            3.6006531119346619e-01 -9.5839411020278931e-01</leafValues></_>
        <_>
          <internalNodes>
            0 -1 0 -8.3305416628718376e-03</internalNodes>
          <leafValues>
            6.3772433996200562e-01 -5.4539263248443604e-01</leafValues></_></weakClassifiers></_>
    <!-- stage 4 -->
    <_>
      <maxWeakCount>4</maxWeakCount>
      <stageThreshold>-2.8352811932563782e-02</stageThreshold>
      <weakClassifiers>
        <_>
          <internalNodes>
            0 -1 15 3.9021013071760535e-04</internalNodes>
          <leafValues>
            6.0933536291122437e-01 -9.3473196029663086e-01</leafValues></_>
        <_>
          <internalNodes>
            0 -1 13 -3.8898395723663270e-04</internalNodes>
          <leafValues>
            3.3638691902160645e-01 -9.1009908914566040e-01</leafValues></_>
        <_>
          <internalNodes>
            0 -1 9 -5.7715758885024115e-05</internalNodes>
          <leafValues>
            3.0819979310035706e-01 -8.1838983297348022e-01</leafValues></_>
        <_>
          <internalNodes>
            0 -1 19 -6.4557723817415535e-05</internalNodes>
          <leafValues>
            2.6179242134094238e-01 -8.9492040872573853e-01</leafValues></_></weakClassifiers></_>
    <!-- stage 5 -->
    <_>
      <maxWeakCount>1</maxWeakCount>
      <stageThreshold>6.0665655136108398e-01</stageThreshold>
      <weakClassifiers>
        <_>
          <internalNodes>
            0 -1 18 6.0634064720943570e-04</internalNodes>
          <leafValues>
            6.0665655136108398e-01 -9.6642684936523438e-01</leafValues></_></weakClassifiers></_>
    <!-- stage 6 -->
    <_>
      <maxWeakCount>4</maxWeakCount>
      <stageThreshold>-7.4343848228454590e-01</stageThreshold>
      <weakClassifiers>
        <_>
          <internalNodes>
            0 -1 10 -6.7314232001081109e-04</internalNodes>
          <leafValues>
            6.0424029827117920e-01 -9.4749402999877930e-01</leafValues></_>
        <_>
          <internalNodes>
            0 -1 16 -1.8251247820444405e-04</internalNodes>
          <leafValues>
            -7.9012078046798706e-01 3.8346827030181885e-01</leafValues></_>
        <_>
          <internalNodes>
            0 -1 7 1.1038898956030607e-03</internalNodes>
          <leafValues>
            3.1877142190933228e-01 -8.0636370182037354e-01</leafValues></_>
        <_>
          <internalNodes>
            0 -1 11 -4.3444597395136952e-04</internalNodes>
          <leafValues>
            -8.7632942199707031e-01 2.5149172544479370e-01</leafValues></_></weakClassifiers></_>
    <!-- stage 7 -->
    <_>
      <maxWeakCount>5</maxWeakCount>
      <stageThreshold>-4.3063837289810181e-01</stageThreshold>
      <weakClassifiers>
        <_>
          <internalNodes>
            0 -1 22 -2.2910198822501116e-05</internalNodes>
          <leafValues>
            5.8051282167434692e-01 -7.3777776956558228e-01</leafValues></_>
        <_>
          <internalNodes>
            0 -1 5 8.5942121222615242e-04</internalNodes>
          <leafValues>
            3.0659061670303345e-01 -8.2610863447189331e-01</leafValues></_>
        <_>
          <internalNodes>
            0 -1 1 -5.3592445328831673e-03</internalNodes>
          <leafValues>
            3.1152188777923584e-01 -7.4751347303390503e-01</leafValues></_>
        <_>
          <internalNodes>
            0 -1 23 -1.5503111062571406e-03</internalNodes>
          <leafValues>
            3.6912631988525391e-01 -5.4352170228958130e-01</leafValues></_>
        <_>
          <internalNodes>
            0 -1 21 -1.3026595115661621e-04</internalNodes>
          <leafValues>
            -8.4870672225952148e-01 2.3254863917827606e-01</leafValues></_></weakClassifiers></_></stages>
  <features>
    <_>
      <rects>
        <_>
          8 3 2 4 -1.</_>
        <_>
          8 5 2 2 2.</_></rects>
      <tilted>0</tilted></_>
    <_>
      <rects>
        <_>
          8 5 6 6 -1.</_>
        <_>
          10 5 2 6 3.</_></rects>
      <tilted>0</tilted></_>
    <_>
      <rects>
        <_>
          8 7 4 5 -1.</_>
        <_>
          10 7 2 5 2.</_></rects>
      <tilted>0</tilted></_>
    <_>
      <rects>
        <_>
          8 8 5 4 -1.</_>
        <_>
          8 10 5 2 2.</_></rects>
      <tilted>0</tilted></_>
    <_>
      <rects>
        <_>
          8 9 6 3 -1.</_>
        <_>
          10 9 2 3 3.</_></rects>
      <tilted>0</tilted></_>
    <_>
      <rects>
        <_>
          8 9 3 3 -1.</_>
        <_>
          8 10 3 1 3.</_></rects>
      <tilted>0</tilted></_>
    <_>
      <rects>
        <_>
          8 9 5 2 -1.</_>
        <_>
          8 10 5 1 2.</_></rects>
      <tilted>0</tilted></_>
    <_>
      <rects>
        <_>
          8 9 6 3 -1.</_>
        <_>
          8 10 6 1 3.</_></rects>
      <tilted>0</tilted></_>
    <_>
      <rects>
        <_>
          9 7 3 6 -1.</_>
        <_>
          9 9 3 2 3.</_></rects>
      <tilted>0</tilted></_>
    <_>
      <rects>
        <_>
          9 9 3 1 -1.</_>
        <_>
          10 9 1 1 3.</_></rects>
      <tilted>0</tilted></_>
    <_>
      <rects>
        <_>
          9 9 6 2 -1.</_>
        <_>
          11 9 2 2 3.</_></rects>
      <tilted>0</tilted></_>
    <_>
      <rects>
        <_>
          9 10 4 2 -1.</_>
        <_>
          9 10 2 1 2.</_>
        <_>
          11 11 2 1 2.</_></rects>
      <tilted>0</tilted></_>
    <_>
      <rects>
        <_>
          9 10 5 2 -1.</_>
        <_>
          9 11 5 1 2.</_></rects>
      <tilted>0</tilted></_>
    <_>
      <rects>
        <_>
          10 9 4 1 -1.</_>
        <_>
          12 9 2 1 2.</_></rects>
      <tilted>0</tilted></_>
    <_>
      <rects>
        <_>
          10 9 4 2 -1.</_>
        <_>
          12 9 2 2 2.</_></rects>
      <tilted>0</tilted></_>
    <_>
      <rects>
        <_>
          10 10 3 1 -1.</_>
        <_>
          11 10 1 1 3.</_></rects>
      <tilted>0</tilted></_>
    <_>
      <rects>
        <_>
          11 9 3 1 -1.</_>
        <_>
          12 9 1 1 3.</_></rects>
      <tilted>0</tilted></_>
    <_>
      <rects>
        <_>
          11 10 2 1 -1.</_>
        <_>
          12 10 1 1 2.</_></rects>
      <tilted>0</tilted></_>
    <_>
      <rects>
        <_>
          11 10 2 2 -1.</_>
        <_>
          11 11 2 1 2.</_></rects>
      <tilted>0</tilted></_>
    <_>
      <rects>
        <_>
          11 11 2 1 -1.</_>
        <_>
          12 11 1 1 2.</_></rects>
      <tilted>0</tilted></_>
    <_>
      <rects>
        <_>
          12 7 1 4 -1.</_>
        <_>
          12 9 1 2 2.</_></rects>
      <tilted>0</tilted></_>
    <_>
      <rects>
        <_>
          12 8 1 4 -1.</_>
        <_>
          12 10 1 2 2.</_></rects>
      <tilted>0</tilted></_>
    <_>
      <rects>
        <_>
          12 8 2 3 -1.</_>
        <_>
          13 8 1 3 2.</_></rects>
      <tilted>0</tilted></_>
    <_>
      <rects>
        <_>
          13 8 3 2 -1.</_>
        <_>
          14 8 1 2 3.</_></rects>
      <tilted>0</tilted></_>
    <_>
      <rects>
        <_>
          14 9 2 1 -1.</_>
        <_>
          15 9 1 1 2.</_></rects>
      <tilted>0</tilted></_></features></cascade>
</opencv_storage>
